-0.0006154458387754858,-0.010488059371709824,-0.029779603704810143,-0.03431091457605362,-0.035772375762462616,-0.03680161014199257,-0.03122144564986229,-0.03179841861128807,-0.02842096984386444,-0.028858961537480354,-0.03282270208001137,-0.02668391354382038,-0.030300291255116463,-0.025934815406799316,-0.023784006014466286,-0.02829797938466072,-0.027129923924803734,-0.02942788600921631,-0.03033268265426159,-0.026493746787309647,-0.024439847096800804,-0.024217678233981133,-0.023781495168805122,-0.022149188444018364,-0.028288520872592926,-0.02147696539759636,-0.024021964520215988,-0.023725423961877823,-0.01864091493189335,-0.021666014567017555,-0.023351768031716347,-0.01872730441391468,-0.017587656155228615,-0.018474502488970757,-0.019743571057915688,-0.012645790353417397,-0.012516581453382969,-0.021848507225513458,-0.014576724730432034,-0.013937298208475113,-0.013323812745511532,-0.012760178185999393,-0.01609388180077076,-0.008913950994610786,-0.010323296301066875,-0.01039302721619606,-0.012635837309062481,-0.012861509807407856,-0.011335612274706364,-0.008213125169277191,-0.008214197121560574,-0.015124020166695118,-0.014513523317873478,-0.010866940952837467,-0.009919989854097366,-0.017340922728180885,-0.009838913567364216,-0.013423500582575798,-0.006024123169481754,-0.01842932589352131,-0.01040344126522541,-0.014610756188631058,-0.005693204700946808,-0.01002318225800991,-0.013624652288854122,-0.011131851933896542,-0.013202871195971966,-0.011691163294017315,-0.012253585271537304,-0.006496492773294449,-0.005974527448415756,-0.0036986793857067823,-0.009816202335059643,-0.014759061858057976,-0.012999868020415306,-0.0077194576151669025,-0.017042461782693863,-0.005996760446578264,-0.009985617361962795,-0.014046893455088139,-0.013401314616203308,-0.015361583791673183,-0.013370545580983162,-0.013475140556693077,-0.010982377454638481,-0.013187941163778305,-0.008553795516490936,-0.006208811886608601,-0.013595479540526867,-0.0066474424675107,-0.009441633708775043,-0.010020475834608078,-0.007806066423654556,-0.008855946362018585,-0.00940234586596489,-0.010923448018729687,-0.008885462768375874,-0.007482878863811493,-0.006980572361499071,-0.008466064929962158,-0.012806512415409088,-0.009443465620279312,-0.013450214639306068,-0.010223380289971828,-0.01013983879238367,-0.011877208016812801,-0.01267952099442482,-0.008186628110706806,-0.011361999437212944,-0.008889785967767239,-0.014020750299096107,-0.011052742600440979,-0.010998481884598732,-0.010778876021504402,-0.009035740047693253,-0.013645606115460396,-0.010758801363408566,-0.00814331229776144,-0.008881895802915096,-0.009112836793065071,-0.011707623489201069,-0.010636506602168083,-0.010514970868825912,-0.010707557201385498,-0.010768926702439785,-0.009816314093768597,-0.010704005137085915,-0.009948200546205044,-0.01026364229619503,-0.010646085254848003,-0.009090005420148373,-0.010702568106353283,-0.008472021669149399,-0.006445280276238918,-0.007955054752528667,-0.009888386353850365,-0.009190920740365982,-0.010639225132763386,-0.010477651841938496,-0.010295520536601543,-0.00879635475575924,-0.009371829219162464,-0.01005167793482542,-0.01004619337618351,-0.008700098842382431,-0.010538664646446705,-0.008540653623640537,-0.007539308164268732,-0.008721565827727318,-0.009365093894302845,-0.008318253792822361,-0.008155024610459805,-0.007116291671991348,-0.008670278824865818,-0.010722348466515541,-0.0114442715421319,-0.008106287568807602,-0.009081665426492691,-0.008181797340512276,-0.008314666338264942,-0.008719847537577152,-0.009505209513008595,-0.008781171403825283,-0.01028185524046421,-0.008615748956799507,-0.010853836312890053,-0.01019834354519844,-0.009477723389863968,-0.009403921663761139,-0.010207755491137505,-0.01102982833981514,-0.010612932965159416,-0.009549866430461407,-0.010225572623312473,-0.008837453089654446,-0.00798094179481268,-0.009626333601772785,-0.011210952885448933,-0.00953200925141573,-0.010266016237437725,-0.009646446444094181,-0.010894836857914925,-0.010663659311830997,-0.008805775083601475,-0.010025392286479473,-0.00968958716839552,-0.0101042240858078,-0.008469749242067337,-0.011312010698020458,-0.011673743836581707,-0.010338938795030117,-0.009112638421356678,-0.010100532323122025,-0.010108372196555138,-0.010886114090681076,-0.0094915134832263,-0.010803368873894215,-0.009823095053434372,-0.008419591002166271,-0.010150497779250145,0.08425198495388031,0.07349307835102081,0.07075712829828262,0.06491850316524506,0.06719887256622314,0.057273656129837036,0.06330234557390213,0.05197048932313919,0.051992569118738174,0.04707041755318642,0.044909000396728516,0.03947567939758301,0.04432101547718048,0.03541751205921173,0.04281191900372505,0.031849294900894165,0.04071131721138954,0.0338168628513813,0.03014243207871914,0.03311964124441147,0.030838334932923317,0.03451234847307205,0.029884833842515945,0.0268024243414402,0.02805747091770172,0.029694927856326103,0.028721710667014122,0.02947508916258812,0.028619201853871346,0.03066161833703518,0.02878853678703308,0.026284150779247284,0.02574087306857109,0.022891094908118248,0.02395852655172348,0.026782197877764702,0.022836679592728615,0.021982058882713318,0.022995438426733017,0.021332232281565666,0.02218576706945896,0.017783891409635544,0.022187689319252968,0.018889540806412697,0.023581616580486298,0.020851019769906998,0.018339481204748154,0.01796812005341053,0.02232678234577179,0.01595347374677658,0.019583558663725853,0.01765149086713791,0.013254660181701183,0.017350660637021065,0.014891684986650944,0.016657931730151176,0.01578557677567005,0.01873493753373623,0.015014830976724625,0.018589992076158524,0.013705083169043064,0.02033514901995659,0.016565214842557907,0.013042861595749855,0.01299421489238739,0.015905920416116714,0.008152710273861885,0.01778472773730755,0.015575840137898922,0.010054325684905052,0.009812653064727783,0.012035461142659187,0.010503455065190792,0.01223804336041212,0.014205989427864552,0.009700970724225044,0.01012870017439127,0.012028799392282963,0.012572437524795532,0.01089073158800602,0.010106484405696392,0.010384378023445606,0.010549766942858696,0.01076676044613123,0.007618241477757692,0.00760231725871563,0.011915206909179688,0.013141972944140434,0.012217539362609386,0.007644437253475189,0.010296384803950787,0.010087843984365463,0.007089922204613686,0.009754200465977192,0.010864991694688797,0.008784539997577667,0.00697697838768363,0.00799990352243185,0.006154033355414867,0.00935401301831007,0.008250919170677662,0.012247749604284763,0.009158008731901646,0.009554469026625156,0.009059018455445766,0.008236461319029331,0.0077765570022165775,0.007601075805723667,0.008159685879945755,0.006948258727788925,0.007081794552505016,0.004112887661904097,0.008465622551739216,0.008371195755898952,0.006509971804916859,0.007473978213965893,0.0073326327838003635,0.007170948665589094,0.005707782693207264,0.006764083169400692,0.004498668946325779,0.005506876856088638,0.006861851084977388,0.005471565295010805,0.004277112428098917,0.0077852513641119,0.004011998884379864,0.006088200956583023,0.00573375541716814,0.005068780854344368,0.0052580623887479305,0.005573302041739225,0.004519888665527105,0.006563031580299139,0.005544148851186037,0.007121659349650145,0.004724493715912104,0.005816618911921978,0.0048686726950109005,0.004834569059312344,0.004284292459487915,0.0034681768156588078,0.005578191950917244,0.006353239994496107,0.006958190351724625,0.004629332572221756,0.00581778772175312,0.005746370181441307,0.004299801308661699,0.004630629904568195,0.005277380812913179,0.006017862819135189,0.004990801680833101,0.004939220380038023,0.0028628851287066936,0.005609636195003986,0.0039622122421860695,0.004164677578955889,0.002975891111418605,0.004692411050200462,0.005801179446280003,0.005423489958047867,0.003057647030800581,0.00438940292224288,0.006134357303380966,0.004519911948591471,0.0037194329779595137,0.0034036992583423853,0.004440993070602417,0.004182050935924053,0.004240275826305151,0.003566029015928507,0.005303984973579645,0.004502260126173496,0.005160840693861246,0.0050065359100699425,0.0026626666076481342,0.0028965373057872057,0.005485251545906067,0.004990199580788612,0.0038962410762906075,0.003610811661928892,0.0043643745593726635,0.0036996053531765938,0.004395822528749704,0.0032823230139911175,0.0060376510955393314,0.0028808494098484516,0.004421896766871214,0.005021339748054743,0.004642368759959936,0.004750369116663933,0.0037601867225021124,0.00451624533161521,0.004328823648393154,0.003947216086089611,0.003958392888307571,0.0052199107594788074,0.00474186846986413,0.004177482333034277,