0.005348311271518469,0.008101698011159897,0.008974816650152206,0.010786205530166626,0.011922170408070087,0.013615160249173641,0.015722867101430893,0.017621368169784546,0.019505610689520836,0.020812436938285828,0.022906681522727013,0.024877414107322693,0.026095248758792877,0.02729717455804348,0.02826237678527832,0.029407525435090065,0.031158778816461563,0.03188321739435196,0.03280758485198021,0.03327450528740883,0.03503355011343956,0.03585685044527054,0.03658748045563698,0.03807412460446358,0.037875812500715256,0.0395498126745224,0.03979899361729622,0.04101857170462608,0.04150071367621422,0.04307999089360237,0.04413984343409538,0.04460833966732025,0.04519019275903702,0.04602445289492607,0.048104625195264816,0.049600984901189804,0.049351681023836136,0.0510130301117897,0.05151376500725746,0.05225082114338875,0.05354469269514084,0.054442837834358215,0.05422699451446533,0.05730133876204491,0.05681721866130829,0.057457514107227325,0.05916180834174156,0.06109791249036789,0.061189524829387665,0.06299762427806854,0.06437449157238007,0.06308091431856155,0.06497950106859207,0.06658284366130829,0.06943497806787491,0.06902205944061279,0.07056078314781189,0.07109920680522919,0.07168492674827576,0.0723002478480339,0.0738501101732254,0.07301993668079376,0.07443591207265854,0.076701320707798,0.07556160539388657,0.07650414854288101,0.07948177307844162,0.07838120311498642,0.08006979525089264,0.08120061457157135,0.08325020968914032,0.08437344431877136,0.08434826135635376,0.08298162370920181,0.08511634171009064,0.08221272379159927,0.08561920374631882,0.08486315608024597,0.08851509541273117,0.08790493756532669,0.08945578336715698,0.09000029414892197,0.09047339856624603,0.0903286412358284,0.09193813055753708,0.09285074472427368,0.09357824176549911,0.09513098746538162,0.09490621834993362,0.09527228027582169,0.09732348471879959,0.09620923548936844,0.09762118011713028,0.09653858095407486,0.09775318205356598,0.09781411290168762,0.0987524464726448,0.10052300244569778,0.10034380108118057,0.10215522348880768,0.10152530670166016,0.1026517003774643,0.10046888887882233,0.10322878509759903,0.10353203117847443,0.10333897173404694,0.10342921316623688,0.10506707429885864,0.10461239516735077,0.10412714630365372,0.10604363679885864,0.10633441060781479,0.10716703534126282,0.1069694235920906,0.10801699757575989,0.10833358019590378,0.10758669674396515,0.10981308668851852,0.10853063315153122,0.10896192491054535,0.11011028289794922,0.11049874871969223,0.11034378409385681,0.1104298010468483,0.1105642318725586,0.11254588514566422,0.11315269768238068,0.11268104612827301,0.11159882694482803,0.11155539751052856,0.11337147653102875,0.11407412588596344,0.11445339024066925,0.11396897584199905,0.11502929776906967,0.11464042961597443,0.11623723804950714,0.11619912832975388,0.1173200011253357,0.11623922735452652,0.11649072915315628,0.116970494389534,0.11920338869094849,0.11904030293226242,0.11994370073080063,0.11942729353904724,0.11958222836256027,0.12030132114887238,0.12029103189706802,0.12183165550231934,0.12074494361877441,0.12226102501153946,0.12105070054531097,0.12295754253864288,0.12225683778524399,0.12239675223827362,0.12307906150817871,0.12249148637056351,0.1221085637807846,0.1238722875714302,0.12484882026910782,0.1251733899116516,0.1239776611328125,0.12493868917226791,0.1253458857536316,0.12550711631774902,0.1270197331905365,0.12616698443889618,0.1262691468000412,0.12674658000469208,0.12707757949829102,0.12794439494609833,0.12741407752037048,0.1287677139043808,0.12851308286190033,0.128728449344635,0.12817394733428955,0.13034480810165405,0.12946970760822296,0.12883928418159485,0.12943384051322937,0.13096337020397186,0.13106493651866913,0.13039690256118774,0.13106687366962433,0.13204850256443024,0.13091087341308594,0.13075068593025208,0.13100124895572662,0.13174374401569366,0.13220395147800446,0.13262209296226501,0.13173583149909973,0.13347691297531128,0.13309015333652496,0.13374949991703033,0.1341920644044876,0.1334661841392517,0.1336810439825058,0.13498759269714355,-0.14408263564109802,-0.1433301419019699,-0.1431451290845871,-0.14296303689479828,-0.14278317987918854,-0.14217688143253326,-0.14160309731960297,-0.14163212478160858,-0.14132967591285706,-0.14087903499603271,-0.14077551662921906,-0.14155644178390503,-0.1410709023475647,-0.14128579199314117,-0.1408688724040985,-0.1403074562549591,-0.14061792194843292,-0.14006376266479492,-0.1396750658750534,-0.13916295766830444,-0.1395062357187271,-0.1410006880760193,-0.140019491314888,-0.14129389822483063,-0.14114855229854584,-0.14099988341331482,-0.1403762400150299,-0.14196179807186127,-0.14065910875797272,-0.1414918750524521,-0.14311674237251282,-0.1433749496936798,-0.1446717232465744,-0.14656054973602295,-0.14656150341033936,-0.14448174834251404,-0.147396519780159,-0.14634838700294495,-0.14840912818908691,-0.14848065376281738,-0.14885522425174713,-0.148659348487854,-0.14816483855247498,-0.15215493738651276,-0.1508842557668686,-0.15114153921604156,-0.1491163671016693,-0.1542525589466095,-0.15364906191825867,-0.15162475407123566,-0.15298819541931152,-0.15168632566928864,-0.14760518074035645,-0.14550845324993134,-0.15203163027763367,-0.15729546546936035,-0.15460284054279327,-0.15495893359184265,-0.1574924886226654,-0.1595413237810135,-0.1588318794965744,-0.16060687601566315,-0.15885715186595917,-0.16508561372756958,-0.16107270121574402,-0.16675156354904175,-0.1642112284898758,-0.161516010761261,-0.16210128366947174,-0.16404087841510773,-0.16615742444992065,-0.16627344489097595,-0.16771972179412842,-0.1646084189414978,-0.1698358952999115,-0.17187705636024475,-0.17348967492580414,-0.17221508920192719,-0.17467337846755981,-0.17495013773441315,-0.1771417260169983,-0.17885804176330566,-0.17839492857456207,-0.1791539341211319,-0.1819143295288086,-0.1830424815416336,-0.18506887555122375,-0.18374088406562805,-0.18472719192504883,-0.1861780732870102,-0.18644271790981293,-0.186538964509964,-0.18765388429164886,-0.18756870925426483,-0.18834879994392395,-0.18974921107292175,-0.19255653023719788,-0.19319602847099304,-0.1906696856021881,-0.19244526326656342,-0.19460490345954895,-0.19213159382343292,-0.19494064152240753,-0.19656187295913696,-0.19548603892326355,-0.1957882046699524,-0.1989372968673706,-0.19987651705741882,-0.19858479499816895,-0.1986517459154129,-0.1984163075685501,-0.1989489048719406,-0.1975720375776291,-0.19724063575267792,-0.2010747492313385,-0.19928057491779327,-0.20069637894630432,-0.19906900823116302,-0.199824720621109,-0.2010621279478073,-0.19986021518707275,-0.20193418860435486,-0.2000618577003479,-0.20337434113025665,-0.20121467113494873,-0.20084556937217712,-0.2029031366109848,-0.20073720812797546,-0.20203933119773865,-0.2004179060459137,-0.20305533707141876,-0.2031545788049698,-0.20310787856578827,-0.20373672246932983,-0.20442378520965576,-0.20396442711353302,-0.20418232679367065,-0.20499368011951447,-0.20453234016895294,-0.20578794181346893,-0.20723843574523926,-0.20474421977996826,-0.20562344789505005,-0.20676827430725098,-0.2059696763753891,-0.20607522130012512,-0.20709818601608276,-0.2060147523880005,-0.20824244618415833,-0.2092336118221283,-0.2080361396074295,-0.20857730507850647,-0.2104884386062622,-0.209930419921875,-0.21034371852874756,-0.2112070471048355,-0.210045725107193,-0.2087467908859253,-0.21040400862693787,-0.2084028124809265,-0.2101922333240509,-0.21082353591918945,-0.20855490863323212,-0.21000613272190094,-0.21036431193351746,-0.2123464047908783,-0.20971451699733734,-0.2096661776304245,-0.21156087517738342,-0.2095269411802292,-0.2106679379940033,-0.21124595403671265,-0.2111324965953827,-0.21155662834644318,-0.2120816856622696,-0.21148744225502014,-0.2120361328125,-0.21177037060260773,-0.21048377454280853,-0.2122039496898651,-0.21225804090499878,-0.21288076043128967,-0.21158325672149658,-0.21162855625152588,-0.21171782910823822,-0.21179775893688202,-0.21284613013267517,-0.21235282719135284,-0.2133205384016037,-0.21250951290130615,-0.21225212514400482,-0.21286743879318237,-0.21187637746334076,-0.21279126405715942,-0.21267786622047424,-0.21260680258274078,-0.21332472562789917,-0.21319621801376343,-0.21255415678024292,-0.21376463770866394,