-0.092580646276474,-0.08127563446760178,-0.09081937372684479,-0.09558235108852386,-0.0949767529964447,-0.10896474123001099,-0.11253921687602997,-0.10036332160234451,-0.0947059765458107,-0.09748414903879166,-0.09549122303724289,-0.08472120761871338,-0.0838177278637886,-0.09362415224313736,-0.08671315759420395,-0.08337927609682083,-0.08149053901433945,-0.08608753234148026,-0.0729663148522377,-0.08353237062692642,-0.07484840601682663,-0.07732735574245453,-0.07419651746749878,-0.0711735337972641,-0.07456991821527481,-0.07380212843418121,-0.067240409553051,-0.0705353245139122,-0.060164548456668854,-0.06378977745771408,-0.07060404121875763,-0.066070556640625,-0.05584186688065529,-0.05915335938334465,-0.06712407618761063,-0.06164846569299698,-0.07089847326278687,-0.05694153159856796,-0.06584989279508591,-0.06259063631296158,-0.062041737139225006,-0.06086994335055351,-0.06092826649546623,-0.05931124836206436,-0.06474043428897858,-0.06104195863008499,-0.060508329421281815,-0.06521076709032059,-0.06315100193023682,-0.05993042141199112,-0.06278754770755768,-0.06464177370071411,-0.060422372072935104,-0.06429209560155869,-0.06249677389860153,-0.06134752556681633,-0.06666982918977737,-0.06481710076332092,-0.0688282772898674,-0.0663704201579094,-0.06855110824108124,-0.0660095140337944,-0.06543967872858047,-0.06831967830657959,-0.0677667111158371,-0.06522373110055923,-0.0673329159617424,-0.0677388608455658,-0.06886222958564758,-0.06888870894908905,-0.06825951486825943,-0.06961467117071152,-0.06750334054231644,-0.07099977135658264,-0.06787656992673874,-0.06996499001979828,-0.06829474121332169,-0.06924161314964294,-0.06970103830099106,-0.06989942491054535,-0.07149346172809601,-0.07097916305065155,-0.06833842396736145,-0.06904028356075287,-0.07043233513832092,-0.07278835773468018,-0.0737689658999443,-0.0726667195558548,-0.07274255901575089,-0.07294924557209015,-0.0739724263548851,-0.07234788686037064,-0.07445168495178223,-0.07572493702173233,-0.07537610828876495,-0.07456496357917786,-0.07667804509401321,-0.07514715194702148,-0.0758330374956131,-0.07644329965114594,-0.077159084379673,-0.07626183331012726,-0.07659342139959335,-0.07812380790710449,-0.07726310193538666,-0.07831354439258575,-0.07897594571113586,-0.07891616970300674,-0.07843542844057083,-0.07966882735490799,-0.07914247363805771,-0.07924157381057739,-0.07958328723907471,-0.07971411198377609,-0.08023450523614883,-0.07984329015016556,-0.08035167306661606,-0.08088700473308563,-0.08004575222730637,-0.08114967495203018,-0.08154989778995514,-0.08035574108362198,-0.08178913593292236,-0.08151313662528992,-0.08197708427906036,-0.08166835457086563,-0.08166064321994781,-0.08183397352695465,-0.08215818554162979,-0.08200113475322723,-0.08241049945354462,-0.08205681294202805,-0.08221559226512909,-0.08257586508989334,-0.0824507549405098,-0.08269811421632767,-0.08275946974754333,-0.08273810148239136,-0.08297596871852875,-0.0827721655368805,-0.08276873826980591,-0.08286100625991821,-0.08288244903087616,-0.08307528495788574,-0.08305653929710388,-0.08309841901063919,-0.08315382152795792,-0.08309366554021835,-0.08313792943954468,-0.08313450962305069,-0.08313139528036118,-0.08313129097223282,-0.08311983197927475,-0.08323335647583008,-0.08324984461069107,-0.08322414755821228,-0.08321616053581238,-0.08323073387145996,-0.08325248956680298,-0.08325864374637604,-0.08329666405916214,-0.08326289057731628,-0.08326492458581924,-0.08328650146722794,-0.08328546583652496,-0.08329736441373825,-0.08331640064716339,-0.08330970257520676,-0.08332057297229767,-0.08330385386943817,-0.08329682052135468,-0.0832991823554039,-0.08329993486404419,-0.08330117166042328,-0.0832904726266861,-0.083295077085495,-0.08330467343330383,-0.08330874145030975,-0.08330796658992767,-0.08330428600311279,-0.08330151438713074,-0.08330399543046951,-0.08330799639225006,-0.08330681920051575,-0.08330808579921722,-0.08330927044153214,-0.0833071768283844,-0.08330740034580231,-0.08330985903739929,-0.08331050723791122,-0.08330691605806351,-0.08330585807561874,-0.0833035260438919,-0.08330364525318146,-0.08330307900905609,-0.0833054855465889,-0.08330079913139343,-0.08329998701810837,-0.0833040401339531,-0.08329928666353226,0.035211894661188126,0.04701676219701767,0.0608748160302639,0.06523362547159195,0.05091653764247894,0.04850754514336586,0.04171175882220268,0.04425184056162834,0.036893926560878754,0.03774170204997063,0.03861858695745468,0.04122660309076309,0.032829780131578445,0.03374863415956497,0.038053110241889954,0.03418773040175438,0.03923434764146805,0.03590083122253418,0.036454010754823685,0.03102695941925049,0.03627503663301468,0.03218502551317215,0.03600545600056648,0.027324765920639038,0.03108139894902706,0.02980770543217659,0.030202273279428482,0.03193609043955803,0.030768102034926414,0.030231619253754616,0.03179680183529854,0.029110407456755638,0.026710474863648415,0.028282636776566505,0.030743591487407684,0.027159810066223145,0.024584582075476646,0.02789943479001522,0.02468309924006462,0.02648821845650673,0.02295772358775139,0.025290383026003838,0.024171041324734688,0.01875932887196541,0.022149354219436646,0.02254433184862137,0.02166483923792839,0.023775210604071617,0.024676939472556114,0.024265753105282784,0.020959079265594482,0.022172795608639717,0.019576644524931908,0.017966175451874733,0.017344016581773758,0.02187434397637844,0.0196501724421978,0.018234893679618835,0.019313612952828407,0.017704946920275688,0.02020176686346531,0.01636369340121746,0.018048863857984543,0.018064800649881363,0.014347555115818977,0.017028845846652985,0.012845585122704506,0.01486760564148426,0.016050511971116066,0.014362862333655357,0.015857575461268425,0.015282560139894485,0.012888762168586254,0.016737567260861397,0.01437582541257143,0.016008948907256126,0.014202134683728218,0.010913072153925896,0.010729867964982986,0.013612799346446991,0.014672374352812767,0.012876789085566998,0.01095657143741846,0.008650838397443295,0.009783367626369,0.012311706319451332,0.010137085802853107,0.0112238060683012,0.011946449987590313,0.008813843131065369,0.010370669886469841,0.013168232515454292,0.01125619001686573,0.011838093400001526,0.009748805314302444,0.009391756728291512,0.0111545380204916,0.01165676862001419,0.011438446119427681,0.01031437236815691,0.010832704603672028,0.009556053206324577,0.009954540990293026,0.00911098811775446,0.009138842113316059,0.01058252900838852,0.009661637246608734,0.010079747065901756,0.008286803029477596,0.010480130091309547,0.010242583230137825,0.010464409366250038,0.008842156268656254,0.008665043860673904,0.00956149771809578,0.009924761950969696,0.010714661329984665,0.011297524906694889,0.010688353329896927,0.010283255949616432,0.010633022524416447,0.0093570277094841,0.00978047214448452,0.010333731770515442,0.009029513224959373,0.010204995051026344,0.00938667356967926,0.01020132564008236,0.009522838518023491,0.009966123849153519,0.009206942282617092,0.00957846362143755,0.010285659693181515,0.01064955722540617,0.008982454426586628,0.00980839878320694,0.010726387612521648,0.010303300805389881,0.00999351218342781,0.009714510291814804,0.009630020707845688,0.009136456064879894,0.010184032842516899,0.00948372669517994,0.009761719033122063,0.009448204189538956,0.010339302010834217,0.008754669688642025,0.009295474737882614,0.010085554793477058,0.010395243763923645,0.009922666475176811,0.010570278391242027,0.009252532385289669,0.010564615949988365,0.009498353116214275,0.010073378682136536,0.0094913886860013,0.010109538212418556,0.009571833536028862,0.009979181922972202,0.01034391950815916,0.011308369226753712,0.009631423279643059,0.01037577260285616,0.010919368825852871,0.009724593721330166,0.009718424640595913,0.010179981589317322,0.010157374665141106,0.010775933973491192,0.010127452202141285,0.010231412015855312,0.011184075847268105,0.010193570517003536,0.010631740093231201,0.010206848382949829,0.010085085406899452,0.010393434204161167,0.010909482836723328,0.009417621418833733,0.010283331386744976,0.010834086686372757,0.010385042056441307,0.010137923061847687,0.010218048468232155,0.01003699004650116,0.010123229585587978,0.00996226817369461,0.009999947622418404,0.009876473806798458,0.01053338311612606,0.010732072405517101,0.010372691787779331,0.01034981943666935,0.010028858669102192,0.009925860911607742,0.010288254357874393,0.010010127909481525,0.010326625779271126,